digraph Tree {
node [shape=box, style="filled, rounded", color="black", fontname=helvetica] ;
edge [fontname=helvetica] ;
0 [label=<sepal length &le; 5.45<br/>entropy = 1.582<br/>samples = 105<br/>value = [36, 32, 37]<br/>class = Iris-virginica>, fillcolor="#8139e504"] ;
1 [label=<sepal width &le; 2.8<br/>entropy = 0.657<br/>samples = 38<br/>value = [33, 4, 1]<br/>class = Iris-setosa>, fillcolor="#e58139da"] ;
0 -> 1 [labeldistance=2.5, labelangle=45, headlabel="True"] ;
2 [label=<sepal length &le; 4.7<br/>entropy = 1.252<br/>samples = 6<br/>value = [1, 4, 1]<br/>class = Iris-versicolor>, fillcolor="#39e58199"] ;
1 -> 2 ;
3 [label=<entropy = 0.0<br/>samples = 1<br/>value = [1, 0, 0]<br/>class = Iris-setosa>, fillcolor="#e58139ff"] ;
2 -> 3 ;
4 [label=<sepal width &le; 2.45<br/>entropy = 0.722<br/>samples = 5<br/>value = [0, 4, 1]<br/>class = Iris-versicolor>, fillcolor="#39e581bf"] ;
2 -> 4 ;
5 [label=<entropy = 0.0<br/>samples = 3<br/>value = [0, 3, 0]<br/>class = Iris-versicolor>, fillcolor="#39e581ff"] ;
4 -> 5 ;
6 [label=<sepal width &le; 2.6<br/>entropy = 1.0<br/>samples = 2<br/>value = [0, 1, 1]<br/>class = Iris-versicolor>, fillcolor="#39e58100"] ;
4 -> 6 ;
7 [label=<entropy = 0.0<br/>samples = 1<br/>value = [0, 0, 1]<br/>class = Iris-virginica>, fillcolor="#8139e5ff"] ;
6 -> 7 ;
8 [label=<entropy = 0.0<br/>samples = 1<br/>value = [0, 1, 0]<br/>class = Iris-versicolor>, fillcolor="#39e581ff"] ;
6 -> 8 ;
9 [label=<entropy = 0.0<br/>samples = 32<br/>value = [32, 0, 0]<br/>class = Iris-setosa>, fillcolor="#e58139ff"] ;
1 -> 9 ;
10 [label=<sepal width &le; 3.45<br/>entropy = 1.208<br/>samples = 67<br/>value = [3, 28, 36]<br/>class = Iris-virginica>, fillcolor="#8139e534"] ;
0 -> 10 [labeldistance=2.5, labelangle=-45, headlabel="False"] ;
11 [label=<sepal length &le; 6.25<br/>entropy = 0.993<br/>samples = 62<br/>value = [0, 28, 34]<br/>class = Iris-virginica>, fillcolor="#8139e52d"] ;
10 -> 11 ;
12 [label=<sepal width &le; 2.45<br/>entropy = 0.918<br/>samples = 30<br/>value = [0, 20, 10]<br/>class = Iris-versicolor>, fillcolor="#39e5817f"] ;
11 -> 12 ;
13 [label=<entropy = 0.0<br/>samples = 4<br/>value = [0, 4, 0]<br/>class = Iris-versicolor>, fillcolor="#39e581ff"] ;
12 -> 13 ;
14 [label=<sepal length &le; 5.75<br/>entropy = 0.961<br/>samples = 26<br/>value = [0, 16, 10]<br/>class = Iris-versicolor>, fillcolor="#39e58160"] ;
12 -> 14 ;
15 [label=<sepal width &le; 2.85<br/>entropy = 0.764<br/>samples = 9<br/>value = [0, 7, 2]<br/>class = Iris-versicolor>, fillcolor="#39e581b6"] ;
14 -> 15 ;
16 [label=<sepal length &le; 5.55<br/>entropy = 0.971<br/>samples = 5<br/>value = [0, 3, 2]<br/>class = Iris-versicolor>, fillcolor="#39e58155"] ;
15 -> 16 ;
17 [label=<entropy = 0.0<br/>samples = 1<br/>value = [0, 1, 0]<br/>class = Iris-versicolor>, fillcolor="#39e581ff"] ;
16 -> 17 ;
18 [label=<sepal width &le; 2.55<br/>entropy = 1.0<br/>samples = 4<br/>value = [0, 2, 2]<br/>class = Iris-versicolor>, fillcolor="#39e58100"] ;
16 -> 18 ;
19 [label=<entropy = 0.0<br/>samples = 1<br/>value = [0, 0, 1]<br/>class = Iris-virginica>, fillcolor="#8139e5ff"] ;
18 -> 19 ;
20 [label=<sepal length &le; 5.65<br/>entropy = 0.918<br/>samples = 3<br/>value = [0, 2, 1]<br/>class = Iris-versicolor>, fillcolor="#39e5817f"] ;
18 -> 20 ;
21 [label=<entropy = 0.0<br/>samples = 1<br/>value = [0, 0, 1]<br/>class = Iris-virginica>, fillcolor="#8139e5ff"] ;
20 -> 21 ;
22 [label=<entropy = 0.0<br/>samples = 2<br/>value = [0, 2, 0]<br/>class = Iris-versicolor>, fillcolor="#39e581ff"] ;
20 -> 22 ;
23 [label=<entropy = 0.0<br/>samples = 4<br/>value = [0, 4, 0]<br/>class = Iris-versicolor>, fillcolor="#39e581ff"] ;
15 -> 23 ;
24 [label=<sepal width &le; 2.65<br/>entropy = 0.998<br/>samples = 17<br/>value = [0, 9, 8]<br/>class = Iris-versicolor>, fillcolor="#39e5811c"] ;
14 -> 24 ;
25 [label=<entropy = 0.0<br/>samples = 1<br/>value = [0, 0, 1]<br/>class = Iris-virginica>, fillcolor="#8139e5ff"] ;
24 -> 25 ;
26 [label=<sepal width &le; 2.95<br/>entropy = 0.989<br/>samples = 16<br/>value = [0, 9, 7]<br/>class = Iris-versicolor>, fillcolor="#39e58139"] ;
24 -> 26 ;
27 [label=<sepal width &le; 2.85<br/>entropy = 0.918<br/>samples = 9<br/>value = [0, 6, 3]<br/>class = Iris-versicolor>, fillcolor="#39e5817f"] ;
26 -> 27 ;
28 [label=<sepal length &le; 6.15<br/>entropy = 0.985<br/>samples = 7<br/>value = [0, 4, 3]<br/>class = Iris-versicolor>, fillcolor="#39e58140"] ;
27 -> 28 ;
29 [label=<sepal length &le; 5.9<br/>entropy = 0.918<br/>samples = 6<br/>value = [0, 4, 2]<br/>class = Iris-versicolor>, fillcolor="#39e5817f"] ;
28 -> 29 ;
30 [label=<entropy = 1.0<br/>samples = 4<br/>value = [0, 2, 2]<br/>class = Iris-versicolor>, fillcolor="#39e58100"] ;
29 -> 30 ;
31 [label=<entropy = 0.0<br/>samples = 2<br/>value = [0, 2, 0]<br/>class = Iris-versicolor>, fillcolor="#39e581ff"] ;
29 -> 31 ;
32 [label=<entropy = 0.0<br/>samples = 1<br/>value = [0, 0, 1]<br/>class = Iris-virginica>, fillcolor="#8139e5ff"] ;
28 -> 32 ;
33 [label=<entropy = 0.0<br/>samples = 2<br/>value = [0, 2, 0]<br/>class = Iris-versicolor>, fillcolor="#39e581ff"] ;
27 -> 33 ;
34 [label=<sepal length &le; 6.05<br/>entropy = 0.985<br/>samples = 7<br/>value = [0, 3, 4]<br/>class = Iris-virginica>, fillcolor="#8139e540"] ;
26 -> 34 ;
35 [label=<sepal width &le; 3.1<br/>entropy = 0.971<br/>samples = 5<br/>value = [0, 3, 2]<br/>class = Iris-versicolor>, fillcolor="#39e58155"] ;
34 -> 35 ;
36 [label=<sepal length &le; 5.95<br/>entropy = 0.918<br/>samples = 3<br/>value = [0, 1, 2]<br/>class = Iris-virginica>, fillcolor="#8139e57f"] ;
35 -> 36 ;
37 [label=<entropy = 1.0<br/>samples = 2<br/>value = [0, 1, 1]<br/>class = Iris-versicolor>, fillcolor="#39e58100"] ;
36 -> 37 ;
38 [label=<entropy = 0.0<br/>samples = 1<br/>value = [0, 0, 1]<br/>class = Iris-virginica>, fillcolor="#8139e5ff"] ;
36 -> 38 ;
39 [label=<entropy = 0.0<br/>samples = 2<br/>value = [0, 2, 0]<br/>class = Iris-versicolor>, fillcolor="#39e581ff"] ;
35 -> 39 ;
40 [label=<entropy = 0.0<br/>samples = 2<br/>value = [0, 0, 2]<br/>class = Iris-virginica>, fillcolor="#8139e5ff"] ;
34 -> 40 ;
41 [label=<sepal width &le; 2.55<br/>entropy = 0.811<br/>samples = 32<br/>value = [0, 8, 24]<br/>class = Iris-virginica>, fillcolor="#8139e5aa"] ;
11 -> 41 ;
42 [label=<entropy = 0.0<br/>samples = 2<br/>value = [0, 2, 0]<br/>class = Iris-versicolor>, fillcolor="#39e581ff"] ;
41 -> 42 ;
43 [label=<sepal length &le; 7.1<br/>entropy = 0.722<br/>samples = 30<br/>value = [0, 6, 24]<br/>class = Iris-virginica>, fillcolor="#8139e5bf"] ;
41 -> 43 ;
44 [label=<sepal length &le; 6.6<br/>entropy = 0.811<br/>samples = 24<br/>value = [0, 6, 18]<br/>class = Iris-virginica>, fillcolor="#8139e5aa"] ;
43 -> 44 ;
45 [label=<sepal width &le; 2.95<br/>entropy = 0.391<br/>samples = 13<br/>value = [0, 1, 12]<br/>class = Iris-virginica>, fillcolor="#8139e5ea"] ;
44 -> 45 ;
46 [label=<sepal width &le; 2.85<br/>entropy = 0.722<br/>samples = 5<br/>value = [0, 1, 4]<br/>class = Iris-virginica>, fillcolor="#8139e5bf"] ;
45 -> 46 ;
47 [label=<entropy = 0.0<br/>samples = 4<br/>value = [0, 0, 4]<br/>class = Iris-virginica>, fillcolor="#8139e5ff"] ;
46 -> 47 ;
48 [label=<entropy = 0.0<br/>samples = 1<br/>value = [0, 1, 0]<br/>class = Iris-versicolor>, fillcolor="#39e581ff"] ;
46 -> 48 ;
49 [label=<entropy = 0.0<br/>samples = 8<br/>value = [0, 0, 8]<br/>class = Iris-virginica>, fillcolor="#8139e5ff"] ;
45 -> 49 ;
50 [label=<sepal width &le; 3.25<br/>entropy = 0.994<br/>samples = 11<br/>value = [0, 5, 6]<br/>class = Iris-virginica>, fillcolor="#8139e52a"] ;
44 -> 50 ;
51 [label=<sepal length &le; 6.95<br/>entropy = 0.991<br/>samples = 9<br/>value = [0, 5, 4]<br/>class = Iris-versicolor>, fillcolor="#39e58133"] ;
50 -> 51 ;
52 [label=<sepal width &le; 2.9<br/>entropy = 1.0<br/>samples = 8<br/>value = [0, 4, 4]<br/>class = Iris-versicolor>, fillcolor="#39e58100"] ;
51 -> 52 ;
53 [label=<entropy = 0.0<br/>samples = 1<br/>value = [0, 1, 0]<br/>class = Iris-versicolor>, fillcolor="#39e581ff"] ;
52 -> 53 ;
54 [label=<sepal width &le; 3.05<br/>entropy = 0.985<br/>samples = 7<br/>value = [0, 3, 4]<br/>class = Iris-virginica>, fillcolor="#8139e540"] ;
52 -> 54 ;
55 [label=<entropy = 0.0<br/>samples = 1<br/>value = [0, 0, 1]<br/>class = Iris-virginica>, fillcolor="#8139e5ff"] ;
54 -> 55 ;
56 [label=<sepal width &le; 3.15<br/>entropy = 1.0<br/>samples = 6<br/>value = [0, 3, 3]<br/>class = Iris-versicolor>, fillcolor="#39e58100"] ;
54 -> 56 ;
57 [label=<sepal length &le; 6.8<br/>entropy = 0.971<br/>samples = 5<br/>value = [0, 3, 2]<br/>class = Iris-versicolor>, fillcolor="#39e58155"] ;
56 -> 57 ;
58 [label=<entropy = 0.918<br/>samples = 3<br/>value = [0, 2, 1]<br/>class = Iris-versicolor>, fillcolor="#39e5817f"] ;
57 -> 58 ;
59 [label=<entropy = 1.0<br/>samples = 2<br/>value = [0, 1, 1]<br/>class = Iris-versicolor>, fillcolor="#39e58100"] ;
57 -> 59 ;
60 [label=<entropy = 0.0<br/>samples = 1<br/>value = [0, 0, 1]<br/>class = Iris-virginica>, fillcolor="#8139e5ff"] ;
56 -> 60 ;
61 [label=<entropy = 0.0<br/>samples = 1<br/>value = [0, 1, 0]<br/>class = Iris-versicolor>, fillcolor="#39e581ff"] ;
51 -> 61 ;
62 [label=<entropy = 0.0<br/>samples = 2<br/>value = [0, 0, 2]<br/>class = Iris-virginica>, fillcolor="#8139e5ff"] ;
50 -> 62 ;
63 [label=<entropy = 0.0<br/>samples = 6<br/>value = [0, 0, 6]<br/>class = Iris-virginica>, fillcolor="#8139e5ff"] ;
43 -> 63 ;
64 [label=<sepal length &le; 6.45<br/>entropy = 0.971<br/>samples = 5<br/>value = [3, 0, 2]<br/>class = Iris-setosa>, fillcolor="#e5813955"] ;
10 -> 64 ;
65 [label=<entropy = 0.0<br/>samples = 3<br/>value = [3, 0, 0]<br/>class = Iris-setosa>, fillcolor="#e58139ff"] ;
64 -> 65 ;
66 [label=<entropy = 0.0<br/>samples = 2<br/>value = [0, 0, 2]<br/>class = Iris-virginica>, fillcolor="#8139e5ff"] ;
64 -> 66 ;
}